tree
version=v3
num_class=1
num_tree_per_iteration=1
label_index=0
max_feature_idx=999
objective=binary sigmoid:1
feature_names=Column_0 Column_1 Column_2 Column_3 Column_4 Column_5 Column_6 Column_7 Column_8 Column_9 Column_10 Column_11 Column_12 Column_13 Column_14 Column_15 Column_16 Column_17 Column_18 Column_19 Column_20 Column_21 Column_22 Column_23 Column_24 Column_25 Column_26 Column_27 Column_28 Column_29 Column_30 Column_31 Column_32 Column_33 Column_34 Column_35 Column_36 Column_37 Column_38 Column_39 Column_40 Column_41 Column_42 Column_43 Column_44 Column_45 Column_46 Column_47 Column_48 Column_49 Column_50 Column_51 Column_52 Column_53 Column_54 Column_55 Column_56 Column_57 Column_58 Column_59 Column_60 Column_61 Column_62 Column_63 Column_64 Column_65 Column_66 Column_67 Column_68 Column_69 Column_70 Column_71 Column_72 Column_73 Column_74 Column_75 Column_76 Column_77 Column_78 Column_79 Column_80 Column_81 Column_82 Column_83 Column_84 Column_85 Column_86 Column_87 Column_88 Column_89 Column_90 Column_91 Column_92 Column_93 Column_94 Column_95 Column_96 Column_97 Column_98 Column_99 Column_100 Column_101 Column_102 Column_103 Column_104 Column_105 Column_106 Column_107 Column_108 Column_109 Column_110 Column_111 Column_112 Column_113 Column_114 Column_115 Column_116 Column_117 Column_118 Column_119 Column_120 Column_121 Column_122 Column_123 Column_124 Column_125 Column_126 Column_127 Column_128 Column_129 Column_130 Column_131 Column_132 Column_133 Column_134 Column_135 Column_136 Column_137 Column_138 Column_139 Column_140 Column_141 Column_142 Column_143 Column_144 Column_145 Column_146 Column_147 Column_148 Column_149 Column_150 Column_151 Column_152 Column_153 Column_154 Column_155 Column_156 Column_157 Column_158 Column_159 Column_160 Column_161 Column_162 Column_163 Column_164 Column_165 Column_166 Column_167 Column_168 Column_169 Column_170 Column_171 Column_172 Column_173 Column_174 Column_175 Column_176 Column_177 Column_178 Column_179 Column_180 Column_181 Column_182 Column_183 Column_184 Column_185 Column_186 Column_187 Column_188 Column_189 Column_190 Column_191 Column_192 Column_193 Column_194 Column_195 Column_196 Column_197 Column_198 Column_199 Column_200 Column_201 Column_202 Column_203 Column_204 Column_205 Column_206 Column_207 Column_208 Column_209 Column_210 Column_211 Column_212 Column_213 Column_214 Column_215 Column_216 Column_217 Column_218 Column_219 Column_220 Column_221 Column_222 Column_223 Column_224 Column_225 Column_226 Column_227 Column_228 Column_229 Column_230 Column_231 Column_232 Column_233 Column_234 Column_235 Column_236 Column_237 Column_238 Column_239 Column_240 Column_241 Column_242 Column_243 Column_244 Column_245 Column_246 Column_247 Column_248 Column_249 Column_250 Column_251 Column_252 Column_253 Column_254 Column_255 Column_256 Column_257 Column_258 Column_259 Column_260 Column_261 Column_262 Column_263 Column_264 Column_265 Column_266 Column_267 Column_268 Column_269 Column_270 Column_271 Column_272 Column_273 Column_274 Column_275 Column_276 Column_277 Column_278 Column_279 Column_280 Column_281 Column_282 Column_283 Column_284 Column_285 Column_286 Column_287 Column_288 Column_289 Column_290 Column_291 Column_292 Column_293 Column_294 Column_295 Column_296 Column_297 Column_298 Column_299 Column_300 Column_301 Column_302 Column_303 Column_304 Column_305 Column_306 Column_307 Column_308 Column_309 Column_310 Column_311 Column_312 Column_313 Column_314 Column_315 Column_316 Column_317 Column_318 Column_319 Column_320 Column_321 Column_322 Column_323 Column_324 Column_325 Column_326 Column_327 Column_328 Column_329 Column_330 Column_331 Column_332 Column_333 Column_334 Column_335 Column_336 Column_337 Column_338 Column_339 Column_340 Column_341 Column_342 Column_343 Column_344 Column_345 Column_346 Column_347 Column_348 Column_349 Column_350 Column_351 Column_352 Column_353 Column_354 Column_355 Column_356 Column_357 Column_358 Column_359 Column_360 Column_361 Column_362 Column_363 Column_364 Column_365 Column_366 Column_367 Column_368 Column_369 Column_370 Column_371 Column_372 Column_373 Column_374 Column_375 Column_376 Column_377 Column_378 Column_379 Column_380 Column_381 Column_382 Column_383 Column_384 Column_385 Column_386 Column_387 Column_388 Column_389 Column_390 Column_391 Column_392 Column_393 Column_394 Column_395 Column_396 Column_397 Column_398 Column_399 Column_400 Column_401 Column_402 Column_403 Column_404 Column_405 Column_406 Column_407 Column_408 Column_409 Column_410 Column_411 Column_412 Column_413 Column_414 Column_415 Column_416 Column_417 Column_418 Column_419 Column_420 Column_421 Column_422 Column_423 Column_424 Column_425 Column_426 Column_427 Column_428 Column_429 Column_430 Column_431 Column_432 Column_433 Column_434 Column_435 Column_436 Column_437 Column_438 Column_439 Column_440 Column_441 Column_442 Column_443 Column_444 Column_445 Column_446 Column_447 Column_448 Column_449 Column_450 Column_451 Column_452 Column_453 Column_454 Column_455 Column_456 Column_457 Column_458 Column_459 Column_460 Column_461 Column_462 Column_463 Column_464 Column_465 Column_466 Column_467 Column_468 Column_469 Column_470 Column_471 Column_472 Column_473 Column_474 Column_475 Column_476 Column_477 Column_478 Column_479 Column_480 Column_481 Column_482 Column_483 Column_484 Column_485 Column_486 Column_487 Column_488 Column_489 Column_490 Column_491 Column_492 Column_493 Column_494 Column_495 Column_496 Column_497 Column_498 Column_499 Column_500 Column_501 Column_502 Column_503 Column_504 Column_505 Column_506 Column_507 Column_508 Column_509 Column_510 Column_511 Column_512 Column_513 Column_514 Column_515 Column_516 Column_517 Column_518 Column_519 Column_520 Column_521 Column_522 Column_523 Column_524 Column_525 Column_526 Column_527 Column_528 Column_529 Column_530 Column_531 Column_532 Column_533 Column_534 Column_535 Column_536 Column_537 Column_538 Column_539 Column_540 Column_541 Column_542 Column_543 Column_544 Column_545 Column_546 Column_547 Column_548 Column_549 Column_550 Column_551 Column_552 Column_553 Column_554 Column_555 Column_556 Column_557 Column_558 Column_559 Column_560 Column_561 Column_562 Column_563 Column_564 Column_565 Column_566 Column_567 Column_568 Column_569 Column_570 Column_571 Column_572 Column_573 Column_574 Column_575 Column_576 Column_577 Column_578 Column_579 Column_580 Column_581 Column_582 Column_583 Column_584 Column_585 Column_586 Column_587 Column_588 Column_589 Column_590 Column_591 Column_592 Column_593 Column_594 Column_595 Column_596 Column_597 Column_598 Column_599 Column_600 Column_601 Column_602 Column_603 Column_604 Column_605 Column_606 Column_607 Column_608 Column_609 Column_610 Column_611 Column_612 Column_613 Column_614 Column_615 Column_616 Column_617 Column_618 Column_619 Column_620 Column_621 Column_622 Column_623 Column_624 Column_625 Column_626 Column_627 Column_628 Column_629 Column_630 Column_631 Column_632 Column_633 Column_634 Column_635 Column_636 Column_637 Column_638 Column_639 Column_640 Column_641 Column_642 Column_643 Column_644 Column_645 Column_646 Column_647 Column_648 Column_649 Column_650 Column_651 Column_652 Column_653 Column_654 Column_655 Column_656 Column_657 Column_658 Column_659 Column_660 Column_661 Column_662 Column_663 Column_664 Column_665 Column_666 Column_667 Column_668 Column_669 Column_670 Column_671 Column_672 Column_673 Column_674 Column_675 Column_676 Column_677 Column_678 Column_679 Column_680 Column_681 Column_682 Column_683 Column_684 Column_685 Column_686 Column_687 Column_688 Column_689 Column_690 Column_691 Column_692 Column_693 Column_694 Column_695 Column_696 Column_697 Column_698 Column_699 Column_700 Column_701 Column_702 Column_703 Column_704 Column_705 Column_706 Column_707 Column_708 Column_709 Column_710 Column_711 Column_712 Column_713 Column_714 Column_715 Column_716 Column_717 Column_718 Column_719 Column_720 Column_721 Column_722 Column_723 Column_724 Column_725 Column_726 Column_727 Column_728 Column_729 Column_730 Column_731 Column_732 Column_733 Column_734 Column_735 Column_736 Column_737 Column_738 Column_739 Column_740 Column_741 Column_742 Column_743 Column_744 Column_745 Column_746 Column_747 Column_748 Column_749 Column_750 Column_751 Column_752 Column_753 Column_754 Column_755 Column_756 Column_757 Column_758 Column_759 Column_760 Column_761 Column_762 Column_763 Column_764 Column_765 Column_766 Column_767 Column_768 Column_769 Column_770 Column_771 Column_772 Column_773 Column_774 Column_775 Column_776 Column_777 Column_778 Column_779 Column_780 Column_781 Column_782 Column_783 Column_784 Column_785 Column_786 Column_787 Column_788 Column_789 Column_790 Column_791 Column_792 Column_793 Column_794 Column_795 Column_796 Column_797 Column_798 Column_799 Column_800 Column_801 Column_802 Column_803 Column_804 Column_805 Column_806 Column_807 Column_808 Column_809 Column_810 Column_811 Column_812 Column_813 Column_814 Column_815 Column_816 Column_817 Column_818 Column_819 Column_820 Column_821 Column_822 Column_823 Column_824 Column_825 Column_826 Column_827 Column_828 Column_829 Column_830 Column_831 Column_832 Column_833 Column_834 Column_835 Column_836 Column_837 Column_838 Column_839 Column_840 Column_841 Column_842 Column_843 Column_844 Column_845 Column_846 Column_847 Column_848 Column_849 Column_850 Column_851 Column_852 Column_853 Column_854 Column_855 Column_856 Column_857 Column_858 Column_859 Column_860 Column_861 Column_862 Column_863 Column_864 Column_865 Column_866 Column_867 Column_868 Column_869 Column_870 Column_871 Column_872 Column_873 Column_874 Column_875 Column_876 Column_877 Column_878 Column_879 Column_880 Column_881 Column_882 Column_883 Column_884 Column_885 Column_886 Column_887 Column_888 Column_889 Column_890 Column_891 Column_892 Column_893 Column_894 Column_895 Column_896 Column_897 Column_898 Column_899 Column_900 Column_901 Column_902 Column_903 Column_904 Column_905 Column_906 Column_907 Column_908 Column_909 Column_910 Column_911 Column_912 Column_913 Column_914 Column_915 Column_916 Column_917 Column_918 Column_919 Column_920 Column_921 Column_922 Column_923 Column_924 Column_925 Column_926 Column_927 Column_928 Column_929 Column_930 Column_931 Column_932 Column_933 Column_934 Column_935 Column_936 Column_937 Column_938 Column_939 Column_940 Column_941 Column_942 Column_943 Column_944 Column_945 Column_946 Column_947 Column_948 Column_949 Column_950 Column_951 Column_952 Column_953 Column_954 Column_955 Column_956 Column_957 Column_958 Column_959 Column_960 Column_961 Column_962 Column_963 Column_964 Column_965 Column_966 Column_967 Column_968 Column_969 Column_970 Column_971 Column_972 Column_973 Column_974 Column_975 Column_976 Column_977 Column_978 Column_979 Column_980 Column_981 Column_982 Column_983 Column_984 Column_985 Column_986 Column_987 Column_988 Column_989 Column_990 Column_991 Column_992 Column_993 Column_994 Column_995 Column_996 Column_997 Column_998 Column_999
feature_infos=[3.3756945924944297e-15:0.00066038552904501557] [4.7552112021501201e-15:0.00029642699519172311] [2.8218235175814579e-14:0.0022826201748102903] [9.7321110436291878e-16:0.0003048153012059629] [5.0651020175513685e-15:0.0004131296300329268] [6.8663633196667899e-15:0.00045058410614728928] [4.4479918227853933e-16:0.00015428655024152249] [2.5763478806936635e-13:0.001960019813850522] [4.8144241414707634e-14:0.00021488290803972632] [5.1766003525302411e-15:0.00053269078489392996] [2.4618379454818167e-15:6.6607542976271361e-05] [1.9511100702207691e-14:6.9489105953834951e-05] [6.2508422645889822e-15:6.6468739532865584e-05] [1.4864909416632778e-15:4.4606804294744506e-05] [1.6924079333934688e-15:0.00024161518376786262] [2.2478825052030639e-15:0.00012236663314979523] [8.5680389581735232e-15:0.00026691844686865807] [7.9157431206577228e-16:0.0017326232045888901] [7.7637054711859042e-16:0.00033240427728742361] [8.030471192264476e-15:0.0001198652753373608] [3.908114303908302e-15:0.0001026769241434522] [5.7632765476222508e-14:0.00020169536583125591] [5.053415165164922e-14:0.00018032226944342256] [1.4428657379127185e-14:0.0012678010389208794] [4.3129177021482366e-15:0.00045723305083811283] [5.9358811099654695e-15:0.00037703168345615268] [6.3399807297053541e-16:3.4426331694703549e-05] [1.0589652493385362e-14:3.4703756682574749e-05] [1.7994637287947583e-14:0.00019429203530307859] [6.6674531962345233e-16:0.0001420880580553785] [1.7685805740186436e-16:0.00010665666923159733] [6.9408076689724311e-16:0.00014623545575886965] [3.5961211527319684e-15:0.00016566064732614905] [3.3079521796257013e-16:0.00059627112932503223] [6.9324723353758567e-16:0.001020680065266788] [1.8147954063048874e-15:0.00059075932949781418] [1.754484415823071e-14:0.00037153452285565436] [1.4691390058706524e-14:0.00028513671713881195] [4.0044088210004335e-15:0.00013449294783640653] [4.8550303292148951e-16:0.0003042011521756649] [1.4804860074628368e-16:6.0487589507829398e-05] [2.0398846711588243e-15:8.5957282863091677e-05] [2.4565751180222889e-15:0.00020128923642914742] [2.7976190640697216e-16:0.00032694273977540433] [1.5086102541687582e-15:8.6902575276326388e-05] [4.5656532753676066e-14:0.00038136646617203951] [8.1122124127733578e-16:9.4633236585650593e-05] [1.2439483511729292e-16:9.405587479704991e-05] [3.6295166972268901e-15:0.0001480530045228079] [8.4426780819798868e-15:0.00011826236004708335] [3.278793070416472e-16:7.7944736403878778e-05] [1.6085513455076084e-13:0.0043338201940059662] [2.5776622894805538e-15:0.00036651725531555712] [2.7700962319321745e-14:6.5468659158796072e-05] [1.2481979419390836e-16:0.00010239192488370463] [1.063474323354126e-15:0.00057611358352005482] [4.6617231169704789e-16:5.8943543990608305e-05] [1.8690703129496276e-15:5.7105909945676103e-05] [5.7520032802481249e-16:0.0001661843853071332] [6.8134483244188665e-15:0.00093767693033441901] [3.973076140545255e-14:0.00075283442856743932] [3.7423286744278357e-16:0.00012505605991464108] [1.2459537016755538e-14:0.00010200322140008211] [7.4544472835171363e-15:0.00078090943861752748] [3.4154600365109405e-15:0.00082000758266076446] [1.5490117140495386e-15:0.00065580190857872367] [1.4603091956152947e-14:0.00025419684243388474] [3.3245876420119798e-16:0.00023198916460387409] [3.0520369506014571e-15:0.00022752184304408729] [1.8121087448511389e-14:0.00010006305092247203] [1.8471882755484968e-15:4.5189113734522834e-05] [9.3444801796036502e-15:0.00017730389663483948] [8.3557843600528571e-15:7.3352704930584878e-05] [9.7559730205445255e-15:0.00078191288048401475] [3.0949675979231796e-16:0.00010217555245617405] [9.5179931847827991e-15:0.0006387521862052381] [1.8760780282804992e-15:0.00020929810125380754] [2.2017141803195802e-16:6.6630454966798425e-05] [2.960325305270445e-15:0.00031606241827830672] [2.8456431004977856e-14:0.0030645956285297871] [1.3103024770411077e-15:0.00081828952534124255] [4.8461671882130629e-16:0.00018087479111272842] [2.7956574416429991e-15:0.00015161125338636339] [2.0208476819022492e-13:0.0012190475827082992] [2.4406944678711324e-16:0.00058654230087995529] [1.6836697297513566e-15:0.0002471961488481611] [5.993561089058172e-15:0.00034071711706928909] [8.9552888691310333e-15:0.00047021280624903738] [1.0402149045016414e-14:0.0026423712261021137] [2.6257475875665279e-14:0.00022164183610584587] [1.8487391928749194e-15:8.163280290318653e-05] [2.8770916127085011e-15:8.4258645074442029e-05] [3.79571345532413e-15:0.00021064466272946447] [1.3083316981882254e-13:0.0020045256242156029] [1.3259593516755114e-14:0.00044656798127107322] [4.1242339133672895e-15:3.0699400667799637e-05] [4.8700172007880207e-15:0.00067568477243185043] [9.1825624201977022e-16:0.00022192283358890563] [6.0648363704707796e-16:0.0028952846769243479] [5.3278592610861777e-15:0.00059171143220737576] [8.2420043300723183e-16:0.00024044368183240294] [5.0085748502998791e-15:0.0040165605023503304] [4.4799229531936307e-15:0.00021375952928792685] [2.3356099193084286e-15:0.00020911578030791134] [6.3183035683983405e-16:0.00031049910467118025] [5.7870407981112991e-16:0.00043499635648913682] [3.2399899617071605e-15:0.00028919157921336591] [1.6518772162849374e-14:0.00039003213169053197] [1.0919917654011408e-16:0.00029815308516845107] [4.2545181685668416e-15:0.00043542461935430765] [1.4741732297256281e-16:9.9441298516467214e-05] [2.3500240907300919e-15:0.0023927774745970964] [1.1658531839855036e-14:0.0023305288050323725] [1.2792479410299838e-14:0.0005077450186945498] [6.2660528587393013e-15:0.00050192826893180609] [2.804457266932024e-15:0.00012914929538965225] [5.9332582724442966e-15:8.0794881796464324e-05] [4.7387685985780196e-15:0.00037799956044182181] [9.2414947375029201e-16:0.00086311460472643375] [6.6267842857006473e-15:0.00072164909215644002] [1.9782337592577463e-14:0.00050528463907539845] [9.578347670406457e-15:0.00049736566143110394] [1.8238218552589502e-14:0.001218984485603869] [4.9545489713416317e-15:0.00050950911827385426] [2.7137508379511659e-15:0.000182879957719706] [2.4567720531825255e-15:6.926675996510312e-05] [4.1733231996056441e-13:0.0015867399051785469] [3.3319023538466719e-15:0.00016501577920280397] [1.2817043154011976e-15:0.000406142498832196] [2.8513043299040544e-14:8.4733968833461404e-05] [1.5987800877775306e-15:0.00028862903127446771] [1.0668550436048548e-15:0.00011111875210190192] [8.1064322599412944e-15:0.00039457320235669613] [2.8509772428375162e-17:6.6373577283229679e-05] [1.4236520491130167e-13:0.00068163289688527584] [6.041725076504946e-15:0.00025169603759422898] [1.5464305929010179e-15:0.00020666696946136653] [7.2639538088443804e-15:9.1019872343167663e-05] [8.4470551247348234e-16:5.6135220802389085e-05] [3.6020406424838551e-15:3.0723334930371493e-05] [1.3839700971341167e-14:3.024936631845776e-05] [7.1287531626607276e-16:5.4035859648138285e-05] [3.9382378660070987e-16:9.7944803201244213e-06] [2.807165231264396e-15:0.00020264039631001651] [1.9341033850574446e-15:0.00067169388057664037] [1.3263690615120984e-14:0.0027550216764211655] [1.7786150292376304e-15:0.0006280622910708189] [5.0836434628876467e-16:0.0017552145291119814] [1.7711267285883104e-15:0.019680501893162727] [2.1764215118167708e-15:0.0021100398153066635] [5.7753701452299688e-14:0.024644328281283379] [5.4222610830576695e-14:0.00076093117240816355] [4.0482152474500578e-15:0.00045161478919908404] [5.4837887093132746e-15:0.00049331673653796315] [5.1675176182368332e-14:0.0016840151511132717] [1.4044323802607072e-14:0.0011568339541554451] [6.9248373921475433e-15:0.00013828363444190472] [2.5693778837399331e-14:0.00078769586980342865] [8.7447706885522385e-15:0.00049192988080903888] [8.2574607755355779e-15:0.00037821868318133056] [3.9719120462251845e-13:0.0034886121284216642] [6.0947815262550609e-15:0.00099937326740473509] [5.9599355751180708e-15:0.00041704747127369046] [4.94996404976078e-13:0.00061530806124210358] [7.3595948400177053e-15:0.0030741533264517784] [2.3241591350043819e-14:0.0004236388485878706] [3.4769169355154499e-15:0.00019852689001709223] [3.3928602657419538e-14:0.00029128571623004973] [2.0994102926919465e-14:0.0017698497977107763] [1.0051379487844431e-13:0.0019578989595174789] [7.3930445099179565e-13:0.0042749275453388691] [8.9510528573618145e-15:0.00059502199292182922] [1.1612015331490672e-14:0.002340222941711545] [2.8884050506201506e-14:0.0023494409397244453] [1.8374488789627301e-15:0.0018842000281438231] [6.3205239382146255e-14:0.00038000164204277098] [3.342533972587429e-14:0.0016554192407056689] [2.2428997407172163e-13:0.003566710976883769] [2.6578191348615963e-14:0.0013376023853197694] [2.0290709826860549e-14:0.0033736929763108492] [4.8278654532008577e-15:0.00054448045557364821] [2.4904547418465664e-14:0.00071128126000985503] [5.7450983735412263e-15:0.00035852007567882538] [1.1474068223327194e-13:0.0050040562637150288] [4.8766692046326929e-14:0.00090203905710950494] [5.7395346376271864e-15:0.00090259237913414836] [5.4760959560863111e-15:0.0012039423454552889] [3.9282271012408554e-14:0.00059447652893140912] [4.1327167789274519e-14:0.00035131070762872696] [1.0510288894359423e-14:0.00088421948021277785] [8.1802288196246992e-14:0.0042669079266488552] [5.1486772337976452e-14:0.00053298560669645667] [2.9940098997586172e-15:0.00099155516363680363] [6.5286583647919394e-13:0.00057345337700098753] [3.2166072106223909e-13:0.00045903431600891054] [2.5822318458837423e-13:0.002320852130651474] [1.3151255885218921e-15:0.00058104941854253411] [1.6981263671698305e-13:0.0014657630817964673] [2.0481978336680043e-14:0.005042356438934803] [3.3783116278399139e-14:0.0013076681643724442] [2.4989496691558977e-13:0.0013019050238654017] [5.1305785114070732e-15:0.00065909262048080564] [1.2240676137628692e-12:0.0062846052460372448] [4.80952320883795e-14:0.02452215738594532] [3.0637500186576211e-14:0.0011552319629117846] [1.4484143119370026e-14:0.00079465343151241541] [1.6064472817853108e-14:0.00053341785678640008] [1.6121326008085995e-13:0.00069619080750271678] [9.4902445548373376e-14:0.0027596584986895323] [5.6798478680758491e-14:0.0060579832643270493] [8.2555273381301753e-14:0.0015998807502910495] [2.3037301233319596e-13:0.0012165667722001672] [2.6422879726220594e-13:0.0014163602609187365] [2.1610226222422771e-14:0.0013588122092187405] [7.6656420740141978e-14:0.00075914169428870082] [1.6448629364487245e-14:0.00022958350018598139] [9.7107177442386228e-14:0.0013877446763217449] [1.3462321535318011e-13:0.00097491010092198849] [5.2708319208793347e-15:0.0015051825903356075] [3.194021991879438e-14:0.00048927869647741318] [4.3268662849697825e-13:0.0010095152538269758] [1.9172723575867218e-13:0.0021238904446363449] [6.087441477547334e-14:0.0048728035762906075] [2.3302891124436613e-14:0.001766153029166162] [1.3263443620313564e-13:0.002131839282810688] [3.2837236619079335e-13:0.0024399172980338335] [4.2055898694104421e-13:0.0027608706150203943] [2.8928987298119241e-14:0.0029135649092495441] [1.0568530642643403e-12:0.0060755987651646137] [5.4835015651441554e-13:0.0030060585122555494] [8.9709826955777609e-15:0.0016697392566129565] [5.2945256685810183e-13:0.00093901401851326227] [7.2518576701378207e-14:0.004707931075245142] [7.0365523303916877e-13:0.011305511929094791] [5.3594552840846577e-15:0.0012505040504038334] [1.1153590936041277e-13:0.0022166464477777481] [2.1625491111385009e-13:0.00079560419544577599] [6.8348723287537695e-15:0.00082362478133291006] [1.3483033862570631e-13:0.0045375600457191467] [3.0560886395310238e-13:0.0021525176707655191] [4.3137619398867649e-14:0.0013865873916074634] [1.1966369870908614e-14:0.00072365551022812724] [5.3555673350941246e-13:0.001112676109187305] [6.7794104748400419e-14:0.0011098303366452456] [3.3986180569042096e-14:0.0013831525575369596] [6.4542928022558871e-14:0.0036786976270377636] [1.0018598364108788e-12:0.0036559465806931257] [1.1088935759212548e-12:0.0037292400375008583] [3.415833154524206e-14:0.0026959623210132122] [1.8749165767032241e-14:0.0057304720394313335] [6.8567829535168701e-15:0.0030674908775836229] [2.005562464149277e-13:0.0014045833377167583] [6.4203280516204105e-15:0.00015537656145170331] [5.3287259451978083e-14:0.00089204806135967374] [1.4014761844528129e-13:0.0043811658397316933] [2.7249155622882659e-13:0.0013113723834976554] [2.0851130880499696e-13:0.0016010429244488478] [4.8650092878939691e-14:0.0033468771725893021] [1.1275543775171636e-15:0.0032944933045655489] [9.5049310897031905e-15:0.00056278216652572155] [1.0323331782241454e-14:0.0009312485926784575] [7.5298408391192943e-15:0.0011632328387349844] [1.6187689006624296e-14:0.0020112090278416872] [1.9150129141405799e-14:0.0018891299841925502] [9.7477584950220533e-15:0.0049726227298378944] [7.8109746318513751e-14:0.0010525803081691265] [1.707993996073482e-14:0.00021623518841806799] [1.662133836599286e-13:0.0010768644278869033] [4.4201723173580704e-14:0.0027979400474578142] [1.9218515193435322e-14:0.00020260823657736182] [3.8872239303301692e-15:0.00041461316868662834] [1.2561180123393106e-14:0.00076240336056798697] [1.7950940552264628e-14:0.0012483035679906607] [1.7243285521228308e-13:0.0012153097195550799] [6.5441786680690926e-16:0.00090977043146267533] [2.1799360209215184e-14:0.00014918835950084031] [3.7178278440878551e-14:0.0001186458976007998] [1.2339481954943502e-14:0.00090520578669384122] [7.8373430745488448e-17:0.00024483576999045908] [1.979120772160111e-14:0.00098066125065088272] [1.1482863135825125e-14:0.00025660329265519977] [8.440282842211641e-14:0.00039019976975396276] [1.1303479175881967e-13:0.00050865724915638566] [7.6491235762900234e-14:0.00042252382263541222] [1.532567746754393e-13:0.00039819377707317472] [3.4098882537839017e-15:0.00056577922077849507] [2.2077456372391821e-15:0.00029918691143393517] [4.375405270842965e-14:0.00052613904699683189] [1.1726782197206409e-13:0.00035437705810181797] [2.9124294037514769e-15:0.00021683530940208584] [1.4324148760029055e-15:0.00034511723788455129] [8.4188508757670338e-14:0.0003737234219443053] [8.8270380859279546e-14:0.0001619488321011886] [3.3112739252074775e-15:0.0015122381737455726] [3.6635709792448914e-14:0.0022336381953209639] [1.2930571869317065e-13:0.00022770612849853933] [9.4912589614949694e-14:0.0028197623323649168] [2.2697223603634215e-14:0.00036482902942225337] [2.3400508283475882e-14:0.0001169151728390716] [1.2365690848397445e-14:0.00023507657169830054] [2.2743018863443992e-15:7.0658388722222298e-05] [2.066234045027069e-14:0.00023889605654403567] [2.3445467098250246e-14:0.00032987672602757812] [5.246536051336766e-15:4.7241916036000475e-05] [2.2901900645008744e-14:0.00022077737958170474] [2.512650732009597e-14:0.00087928929133340716] [4.4728849564348947e-15:0.00040453151450492442] [9.5401924360226766e-16:4.4729549699695781e-05] [1.590567785716545e-15:5.0745213229674846e-05] [3.9187450756161119e-14:0.00010746891348389909] [9.7678958563100771e-15:0.00013910653069615364] [3.2316905634833734e-14:0.00027723488165065646] [2.5449977344191126e-15:9.3448565166909248e-05] [2.3176727261008979e-15:0.00022220209939405322] [2.0963040534677756e-14:0.00050841015763580799] [7.0795695593036962e-15:0.00026621614233590662] [1.7195117806836566e-14:0.00015090285160113126] [1.8991413801815182e-14:0.00061241595540195704] [4.2825019666221963e-17:9.3759139417670667e-05] [5.6153509254719966e-16:0.00020454745390452445] [6.8229672806801103e-15:0.0022451221011579037] [1.5973850456892265e-14:0.00017410914006177336] [1.9849226090356241e-15:5.5156178859760985e-05] [2.141465647929712e-14:0.0016266476595774293] [4.3358478369424761e-16:6.1656537582166493e-05] [2.0407461566057411e-16:3.6938516132067889e-05] [2.6887934356767916e-15:9.3329334049485624e-05] [1.1231285244886415e-15:0.00053017312893643975] [2.9584175753149915e-15:0.00010390567331342027] [1.3068521518579384e-14:0.00010921177454292774] [4.4723906068310534e-16:0.00028004476916976273] [4.919707541605747e-15:0.00076120340963825583] [1.3536726603470724e-14:0.00064056954579427838] [1.0749482528334565e-14:0.00026588252512738109] [1.7680494790667592e-14:0.00030577951110899448] [1.2460528892336772e-14:0.00024189267423935235] [8.7394630742256246e-16:0.0013032021233811975] [3.0859836170835098e-14:0.00033111334778368473] [9.4019395066135929e-15:0.00017329596448689699] [8.1578666415974173e-15:0.00070467742625623941] [7.9994375991429729e-15:0.014469778165221214] [6.8210114816049001e-15:0.0028901009354740381] [1.4979840140872162e-15:0.0005984380841255188] [1.9291710698539355e-14:0.00056880066404119134] [3.5567091332126995e-15:0.0001477528567193076] [2.0478783328403e-13:0.0048272809945046902] [1.6957361376014678e-15:0.0012032050872221589] [5.0390513159706551e-13:0.0094795636832714081] [5.2590628215937098e-15:0.0011903183767572045] [1.6274984222168325e-15:0.028964810073375702] [9.6380101301122081e-15:0.0022474885918200016] [2.9955137220531725e-14:0.00049589393893256783] [1.6903111033325408e-15:0.00038463459350168705] [6.840894838887866e-16:0.00091589108342304826] [1.978267809982226e-14:0.0086265737190842628] [4.5832228562760289e-15:0.0048109292984008789] [4.6007865079538204e-14:0.000891827919986099] [9.2925401192780165e-15:0.00040648813592270017] [2.3084004258338946e-14:0.00040473445551469922] [2.9874059226820543e-14:0.00044688498019240797] [1.0078885696960388e-14:0.0002791527658700943] [1.4823079287455687e-13:0.0033484015148133039] [1.0547844641174784e-14:0.0012484563048928976] [3.7433583488543417e-15:0.00056924548698589206] [8.6147807773018573e-15:0.00017200630099978298] [8.0886089926651694e-15:0.0002440868120174855] [1.8372386030335742e-15:0.00039207059307955205] [3.5429528099295213e-14:0.00041637840331532061] [3.4278470463315874e-15:8.2819526141975075e-05] [2.0219188905893238e-15:0.00063221307937055826] [1.2441300397401153e-14:0.00032644049497321248] [1.0138003175667876e-13:0.00049072474939748645] [4.8328061116788973e-14:0.0036831754259765148] [2.7502585170195715e-13:0.0006819356931373477] [9.3421991198766943e-15:0.00010018326429417357] [6.5245435973187906e-15:0.00034548787516541779] [1.1208649771678701e-14:0.00040991991409100592] [2.1561269750950546e-13:0.00015532213728874922] [3.4229990532579774e-14:0.00019102539226878434] [2.3819919611924164e-15:6.5843763877637684e-05] [5.9668931037468176e-15:0.00039642408955842257] [5.427529310352236e-16:5.1939699915237725e-05] [6.4814999240381688e-15:0.0001176507503259927] [9.5202454453895483e-15:0.00040435887058265507] [1.0462845731950762e-14:9.9314973340369761e-05] [1.7332240582535775e-14:0.0050447536632418633] [8.5741918055023784e-15:0.00078339927131310105] [5.7425314401945721e-15:7.2209986683446914e-05] [1.3180794888704994e-14:0.00052726082503795624] [1.2458016592615216e-14:0.0013455684529617429] [1.9136415836808429e-16:0.00034984698868356645] [8.4276552750339739e-14:0.0089294789358973503] [2.127723470096753e-15:0.0001105936462408863] [4.3823885916249557e-16:9.7548931080382317e-05] [1.0167433674233405e-14:0.0050724861212074757] [2.7237138935866552e-14:0.0013702656142413616] [2.1975016207750886e-15:0.00048420423991046846] [8.8813661015384876e-14:0.0011199963046237826] [4.3584469936125761e-14:0.002406873507425189] [3.5018296991535039e-14:0.030744574964046478] [3.4637218223818045e-13:0.0098941093310713768] [4.4174750256408338e-14:0.023286493495106697] [3.20431581388083e-14:0.0022387492936104536] [2.5532807002037229e-14:0.0084358984604477882] [2.2839418073808404e-13:0.042520530521869659] [1.803556783086524e-11:0.066590838134288788] [4.5346332347732596e-15:0.0017632907256484032] [2.2205812189035612e-10:0.87083905935287476] [3.6393971170056716e-10:0.83915114402770996] [5.5442751626701148e-14:0.044426027685403824] [4.91200504749989e-13:0.0038884526584297419] [2.0437880107380089e-14:0.0030077830888330936] [9.3258647332339351e-13:0.13758103549480438] [4.8031331922838635e-14:0.016497639939188957] [4.6359449482405446e-13:0.071738645434379578] [5.391487698457563e-14:0.018118944019079208] [6.9757865933314789e-14:0.0017706458456814289] [5.8341796671523838e-11:0.012885557487607002] [1.5642492861992277e-14:0.0054534128867089748] [3.6193629744749739e-14:0.0019302860600873828] [4.0883439754273165e-13:0.0042068562470376492] [2.2766380455645739e-14:0.07890813797712326] [1.2404248635189408e-13:0.010419783182442188] [6.567534331040209e-14:0.054689377546310425] [4.7254828868003359e-15:0.16696459054946899] [5.3048541850519298e-14:0.017022011801600456] [5.0570566614491219e-13:0.0029098254162818193] [1.2762594800430627e-11:0.010431871749460697] [3.8599359169014247e-13:0.015197374857962132] [7.0330362627463172e-13:0.00088714616140350699] [4.6009355857525372e-14:0.0023724967613816261] [5.5816665850937086e-14:0.063939467072486877] [2.884577266379861e-15:0.0012428957270458341] [1.3436943581185325e-14:0.0013772333040833473] [1.9402231557497096e-14:0.0010253193322569132] [7.4349934778175468e-15:0.011284114792943001] [2.8531946770493644e-12:0.65233558416366577] [1.261540293751159e-14:0.0034966026432812214] [2.170991352998513e-14:0.0057173343375325203] [3.4303797595471724e-14:0.0078830374404788017] [2.2230059861048229e-13:0.0079196393489837646] [2.2876834974983051e-12:0.0023124089930206537] [2.7812721540448372e-14:0.016303140670061111] [2.851438796384431e-15:0.00079056259710341692] [4.1839294073579836e-14:0.015247453935444355] [2.4959138691916204e-14:0.0011595786781981587] [1.9395468846446218e-13:0.065942935645580292] [1.4947118792251607e-13:0.0087013058364391327] [1.4387032486033215e-14:0.00076244800584390759] [4.2592458829619415e-14:0.040284063667058945] [3.3137760605336667e-15:0.98731261491775513] [3.7342874730221954e-15:0.016514139249920845] [5.2258659063249193e-15:0.00059763266472145915] [1.9259111449718147e-13:0.0065580611117184162] [2.4561326280106432e-13:0.036134142428636551] [5.5926351874222013e-13:0.0045551923103630543] [1.3469555874313921e-13:0.013454834930598736] [4.9793632758698969e-13:0.0049893693067133427] [4.1335267118316164e-15:0.00145086704287678] [4.04117936827369e-15:0.0028217604849487543] [2.3795777055345049e-15:0.021718109026551247] [5.1121119056668496e-13:0.0052418732084333897] [1.1682178119830355e-13:0.0097675146535038948] [1.6543027798326948e-13:0.0054170065559446812] [9.7997324366655772e-15:0.082187548279762268] [1.7879928440600601e-11:0.0947108194231987] [4.2152885999444112e-14:0.981364905834198] [1.4770663872240054e-14:0.039400726556777954] [4.3274850369812157e-09:0.93422216176986694] [2.0222128957253158e-14:0.023219490423798561] [2.5417394104292621e-15:0.0042211376130580902] [4.9164989808015477e-15:0.0047948495484888554] [2.4852743561037949e-13:0.036873344331979752] [3.6926496203241316e-14:0.0045274822041392326] [3.7544557510127939e-15:0.00019116327166557312] [6.2051858334792598e-14:0.12084237486124039] [2.3634818603103513e-13:0.046492945402860641] [5.710333681602231e-12:0.085960134863853455] [2.6468578847790858e-13:0.080467060208320618] [3.837679739965294e-12:0.63232845067977905] [3.4489795866293402e-14:0.052980504930019379] [2.8821549639089505e-13:0.25728058815002441] [1.4438829906010531e-13:0.10724668204784393] [7.7470819202004465e-15:0.0057760612107813358] [1.1657776286466085e-14:0.025734977796673775] [8.0702707293571138e-15:0.049804516136646271] [2.6415796497902475e-14:0.0031383158639073372] [4.1848150650076327e-14:0.073422282934188843] [1.2602302556542766e-13:0.037129435688257217] [1.1655108132682234e-14:0.013679279014468193] [8.8211129210553213e-14:0.0019507091492414474] [2.6779289506381754e-13:0.10259869694709778] [3.958766636984884e-13:0.010439962148666382] [2.0196829777184566e-14:0.0016622933326289058] [2.1702047982036926e-14:0.023326760157942772] [6.1470170316726969e-14:0.00068500207271426916] [6.2089950253463571e-15:0.00048069015610963106] [3.7097901790447696e-14:0.099895603954792023] [1.0265316293398344e-13:0.098778441548347473] [2.3914236476491046e-13:0.0038225480820983648] [1.0833870091528906e-15:8.372191950911656e-05] [1.3112740026557847e-14:0.0079126693308353424] [1.9178785960077306e-14:0.015131592750549316] [2.5743619950081668e-14:0.005933340173214674] [1.3600016295425843e-12:0.0053903711959719658] [1.6949066932933632e-13:0.02425185963511467] [4.3780263295949487e-14:0.024571187794208527] [4.810975294360087e-13:0.01136534009128809] [1.087684291050349e-13:0.0076325833797454834] [1.8738403366404428e-14:0.002878804225474596] [3.0702681065933324e-13:0.017924640327692032] [2.9353293206453232e-14:0.61399418115615845] [2.2404497148579422e-13:0.0037201866507530212] [3.004355932870878e-13:0.0023492912296205759] [2.7493952210397299e-13:0.031176153570413589] [2.2097151582481378e-13:0.0018531103851273656] [2.3410328783466348e-14:0.093755938112735748] [3.5818611965332536e-10:0.40827473998069763] [1.5473830983908643e-13:0.30019032955169678] [2.3014474007099217e-11:0.0098377661779522896] [1.9386155295674683e-15:0.040396131575107574] [3.7865615184389315e-14:0.0030306731350719929] [5.9837334739909487e-14:0.001926510245539248] [2.1088278692737994e-12:0.6597403883934021] [3.2593302649918179e-14:0.0019026313675567508] [1.7400873968185897e-14:0.014344205148518085] [5.1090804763925801e-13:0.016623755916953087] [9.5776393814559629e-14:0.43177306652069092] [2.1242224288158668e-14:0.0046501290053129196] [1.2101943796041792e-12:0.001931353472173214] [8.3381008532130291e-14:0.37147995829582214] [2.5684127743998315e-14:0.010547039099037647] [9.6846011773759309e-15:0.0023568517062813044] [6.3931264355522859e-15:0.00018114964768756181] [4.0925630126562723e-14:0.01769222691655159] [7.2358899471172689e-13:0.011426640674471855] [2.6914234729780162e-13:0.024991661310195923] [1.4176988305091703e-13:0.005893888883292675] [4.6736600050126254e-13:0.023966012522578239] [1.8164120381414239e-12:0.0061272089369595051] [6.0289412351366423e-12:0.024576613679528236] [2.0011006740539017e-12:0.0048263715580105782] [1.0626841474934562e-14:0.001330240280367434] [4.5874962899608573e-13:0.033883735537528992] [1.3724896243252687e-15:0.0049614701420068741] [1.8206947451429589e-13:0.042356148362159729] [2.0173425430147773e-11:0.0060155754908919334] [1.8119663755533644e-11:0.30607083439826965] [2.7356626485603927e-14:0.0093519808724522591] [3.4809642283440204e-14:0.0019891958218067884] [1.4251797441841574e-12:0.069659531116485596] [2.0379180724135366e-14:0.0027955027762800455] [7.9217767057476046e-14:0.0012555003631860018] [6.8367539277428002e-14:0.04688480868935585] [2.9515205248386786e-14:0.012820941396057606] [1.4916469448511549e-10:0.41568589210510254] [5.6579458830488105e-15:0.011642790399491787] [3.1265929515550406e-13:0.010915793478488922] [8.0017831392530385e-16:0.00063200807198882103] [8.3017292584579294e-14:0.011402365751564503] [3.498106752181096e-13:0.019509615376591682] [4.2647037012955025e-09:0.27034524083137512] [1.2416912116564038e-13:0.011457293294370174] [3.8918677884634909e-15:0.005125132855027914] [7.8634100370445631e-15:0.011285413056612015] [6.6772226636757637e-10:0.23590508103370667] [1.1412679468123291e-15:0.00065316125983372331] [1.9960067127768044e-13:0.0019840500317513943] [2.5647510509688512e-14:0.0049430765211582184] [1.2421468298384752e-09:0.93078762292861938] [3.9912235842709531e-13:0.05973505973815918] [1.1173448451196055e-11:0.57287114858627319] [5.3507935251660352e-15:0.0012947552604600787] [3.6638243437400742e-13:0.23948635160923004] [3.2591827457337241e-13:0.001901177573017776] [6.1330398225256655e-12:0.82628411054611206] [2.0695495013892118e-13:0.014215764589607716] [8.0896584664868175e-15:0.0091699883341789246] [6.136005603358391e-14:0.0013115491019561887] [2.4656973240510388e-14:0.002191000385209918] [1.56775617200745e-14:0.029884304851293564] [2.748321752468752e-12:0.65511441230773926] [7.7994075499236704e-14:0.055629365146160126] [4.1915570406919622e-13:0.020080858841538429] [1.7204258308776976e-13:0.007562707643955946] [2.834646071743583e-14:0.062621280550956726] [1.3364993833864247e-10:0.010608461685478687] [4.7594827384811467e-12:0.026596346870064735] [2.9979675426200503e-13:0.0017006933921948075] [8.6261950544858773e-14:0.021423602476716042] [2.2277357909772366e-12:0.020780380815267563] [4.7236444017883204e-15:0.00055765343131497502] [9.8690844450681492e-14:0.20384161174297333] [5.4488249849604653e-13:0.0075520351529121399] [1.995666883158366e-14:0.0057115079835057259] [2.3080173883194277e-10:0.41630047559738159] [3.5071504213149765e-14:0.0029353934805840254] [8.1149177004816164e-13:0.0087924432009458542] [3.9161897466208351e-14:0.38543581962585449] [2.2537019180122325e-13:0.0014854500768706203] [2.2998252607875358e-11:0.14229103922843933] [9.9160427658178014e-15:0.013119957409799099] [1.3379044644075758e-14:0.026937391608953476] [1.4180801986233421e-13:0.21904431283473969] [4.7365841853103455e-14:0.025633629411458969] [1.3773234295970122e-14:0.039803571999073029] [2.6778372339106467e-14:0.086384192109107971] [3.1808655373295053e-14:0.0092876441776752472] [9.0034879237418236e-14:0.015069487504661083] [3.9527442430298265e-10:0.77893745899200439] [1.4062780887696968e-12:0.0022008081432431936] [8.659196948888892e-13:0.0046047898940742016] [1.8371818823192942e-12:0.21150772273540497] [5.4505899305720001e-14:0.017992964014410973] [2.0452762476263348e-15:0.017273098230361938] [2.6882974131828795e-14:0.0049600503407418728] [1.1400328245444666e-14:0.0022121493238955736] [1.0571293054253625e-13:0.013470686972141266] [3.2526231193022795e-14:0.0014631564263254404] [8.9106863164142847e-14:0.0083809150382876396] [6.9691675390684549e-13:0.022613581269979477] [1.4464093985033788e-11:0.26950401067733765] [2.5003369058355929e-13:0.010757041163742542] [1.9131692622275862e-14:0.0014503957936540246] [8.4497865518798343e-14:0.056070383638143539] [3.9973527959924482e-11:0.054919522255659103] [2.6271717548827234e-13:0.45914259552955627] [1.0398859724702891e-11:0.73722994327545166] [1.0469539325113145e-13:0.039218049496412277] [1.2504629662735568e-14:0.0029146217275410891] [9.2451186409128056e-14:0.16113203763961792] [4.5460296395620926e-15:0.038644146174192429] [2.8443324084914678e-12:0.28590741753578186] [4.5579414638993298e-15:0.0058825765736401081] [5.1069049569708522e-14:0.063295021653175354] [2.1740786186846654e-14:0.0053274841047823429] [3.6719255023728858e-13:0.10193648189306259] [2.4503011449819763e-14:0.058327388018369675] [8.2114109823251506e-15:0.0031417710706591606] [8.1574931000676781e-15:0.00068640144309028983] [7.6058815278931546e-15:0.00029342176276259124] [6.0788213926497164e-14:0.00087722123134881258] [4.979356770656862e-13:0.0039001656696200371] [3.36410912148144e-13:0.0067331036552786827] [2.7956817091369379e-13:0.0011181313311681151] [7.4662814984605814e-16:0.0033711579162627459] [6.9545928125516396e-15:0.0033211656846106052] [9.6333844831872524e-15:0.0030439412221312523] [9.6488309760133818e-15:0.025292716920375824] [2.3349593980049373e-15:0.0024377808440476656] [2.1082072719502687e-13:0.0076804701238870621] [8.1172359957769336e-14:0.047041293233633041] [5.4991498550996387e-13:0.02431195043027401] [2.8160597971885713e-14:0.0031139729544520378] [1.6245113032553604e-09:0.98997503519058228] [1.9210251878815088e-12:0.022326007485389709] [2.0396569632916139e-13:0.99381613731384277] [4.7766505377813684e-13:0.015307995490729809] [1.2340667801069658e-14:0.00044378958409652114] [3.9602347822517009e-15:0.00026844209060072899] [8.2862510256132005e-12:0.37609493732452393] [3.6148202486874226e-12:0.91093862056732178] [8.7443794609745606e-13:0.37730035185813904] [2.4713223851504599e-15:0.0027754886541515589] [2.2302300251800938e-13:0.18167541921138763] [2.2673536225620294e-12:0.13541938364505768] [4.3814744313166315e-15:0.0019383931066840887] [6.7464107488413722e-15:0.0062977033667266369] [2.5495011375491206e-13:0.024305928498506546] [3.95575262270801e-14:0.0091955419629812241] [9.066288301703973e-13:0.51709598302841187] [3.9935899232750385e-14:0.014846009202301502] [4.1127851450016573e-13:0.53311514854431152] [1.4961294735656855e-13:0.048615511506795883] [5.6752671138970978e-14:0.051801107823848724] [3.5898379824317317e-09:0.80953913927078247] [5.9063661622150987e-14:0.0091538848355412483] [3.2337863940454237e-13:0.041447337716817856] [4.8276426259374894e-12:0.017566533759236336] [9.0674845239837329e-16:0.00052288087317720056] [6.5057585241310584e-14:0.011753855273127556] [1.0891312943748024e-13:0.0099016297608613968] [3.6366139862919339e-14:0.0078107770532369614] [1.3150811616438086e-14:0.00067441421560943127] [4.0064455117221065e-14:0.0020728446543216705] [2.685030385929496e-16:0.022724516689777374] [1.9361842858167666e-12:0.018170684576034546] [1.6539745376249748e-13:0.0014957336243242025] [1.4851952133410062e-12:0.071446478366851807] [3.8746848780954902e-15:0.0045705209486186504] [5.0893946175467608e-13:0.037848863750696182] [1.8019775125180382e-12:0.039888575673103333] [7.6447332351178149e-14:0.013050785288214684] [6.5116705430523503e-13:0.0018715859623625875] [4.7060564402649427e-14:0.14675268530845642] [2.2531389460341694e-13:0.0066671366803348064] [3.6508332977840813e-14:0.0023205447942018509] [7.8301241833163109e-15:0.0039770165458321571] [4.3939149736195449e-13:0.018330540508031845] [2.0365511306432577e-13:0.0010797636350616813] [5.6111734182684447e-13:0.021801315248012543] [4.3240389567544835e-12:0.013570870272815228] [1.9406671704206603e-14:0.025779826566576958] [9.5934910948440588e-14:0.04020962119102478] [1.2255245375372009e-13:0.68795806169509888] [6.8852035184363558e-09:0.99188858270645142] [6.6010751416855848e-15:0.11673636734485626] [4.4148722628005108e-14:0.1503928154706955] [4.2175725395833877e-14:0.0034071109257638454] [1.602609544907891e-14:0.0037448785733431578] [5.0577218194819418e-13:0.11813753843307495] [1.4607735390769795e-15:0.03282652422785759] [1.5938779904744148e-15:0.0011638503056019545] [3.7528330052924441e-14:0.0076827178709208965] [4.9884201248364367e-15:0.0014465115964412689] [6.8870900464795132e-14:0.0018428099574521184] [1.1641761773345527e-13:0.013967414386570454] [5.9683594871851042e-13:0.84999978542327881] [9.5336241613848405e-14:0.20369210839271545] [1.2281119690811786e-14:0.040846463292837143] [6.1182416283885738e-14:0.002740741241723299] [4.4320331503118829e-14:0.0068796481937170029] [2.1263191402921822e-13:0.0020393980666995049] [5.6313752006472719e-16:0.003018832765519619] [2.336252393798921e-13:0.0031573118176311255] [9.9222481291893865e-15:0.00093987525906413794] [2.7541188188547061e-13:0.0075152087956666946] [8.6776655197455532e-14:0.10032609105110168] [1.040694426793741e-13:0.0106954425573349] [5.4891524268671499e-13:0.077507473528385162] [7.5707357050092128e-11:0.012795867398381233] [7.9754350909913563e-13:0.010104101151227951] [1.1098077074304588e-13:0.15009383857250214] [1.5425394251852853e-12:0.10004580020904541] [1.4632820510840361e-09:0.8569570779800415] [5.6375707596124924e-14:0.0038938638754189014] [4.8222449660793518e-14:0.0044819568283855915] [1.628552707185621e-13:0.023051345720887184] [1.7221223362270943e-14:0.0038902345113456249] [2.9533913834499381e-13:0.00070672627771273255] [1.0935488625740675e-11:0.060714729130268097] [1.0405569364057426e-14:0.001744914916343987] [1.7707130249913772e-13:0.063936300575733185] [7.7758200540348904e-14:0.03339669480919838] [9.2976256034493776e-13:0.01733320951461792] [8.9301463901576839e-15:0.16358134150505066] [1.3147991809875359e-12:0.010882306843996048] [1.1020920504326015e-12:0.011013040319085121] [7.0415627674439221e-16:0.063877396285533905] [4.7605399711245916e-14:0.00070647906977683306] [1.2315490424338882e-13:0.00728967459872365] [1.0765949763624771e-12:0.8326302170753479] [1.4467329515367028e-14:0.001664963667280972] [5.242823319581702e-13:0.0053150467574596405] [7.9800911972210953e-13:0.1282372921705246] [2.3892293918585834e-14:0.013109150342643261] [1.140141583574894e-14:0.015206657350063324] [8.7809731708077265e-11:0.87886315584182739] [8.8604877558282058e-14:0.038219358772039413] [5.7548757426140185e-13:0.07027030736207962] [1.503217580793581e-13:0.017389805987477303] [1.7455698345103521e-13:0.0038904962129890919] [2.4096238784680757e-13:0.019801465794444084] [2.9418549302336061e-13:0.0043214517645537853] [7.5954796922503287e-13:0.013934792950749397] [2.1253096125443266e-13:0.004025694914162159] [1.8476470353689933e-12:0.018684111535549164] [2.500723423910084e-13:0.0079865707084536552] [2.1221126391508457e-14:0.005942953284829855] [7.7318414257870893e-13:0.036949131637811661] [5.3366008443897495e-13:0.075858540832996368] [1.3132864682351662e-14:0.013775727711617947] [1.8425702519200664e-14:0.0019385454943403602] [7.0086474059267989e-14:0.00071828102227300406] [1.5265278597393836e-14:0.20252226293087006] [5.1198055228674193e-15:0.0055734748020768166] [6.0460192624969822e-13:0.0025361436419188976] [1.0551056590110772e-14:0.0004205595760140568] [5.0436599341452393e-12:0.033523038029670715] [5.4113852288040221e-10:0.99999880790710449] [1.281536285240286e-14:0.0024845106527209282] [1.4690839487290809e-14:0.12368709594011307] [2.6400108770092967e-13:0.10086842626333237] [1.5666088489397351e-13:0.005800226703286171] [4.5538039485093496e-12:0.029765920713543892] [2.7672076801754479e-14:0.0088920788839459419] [1.8122963795896146e-13:0.010606150142848492] [2.8044657796131439e-14:0.0044371671974658966] [3.6649197945100992e-14:0.03968246653676033] [2.5115582289142284e-14:0.26529794931411743] [3.5297126685243999e-14:0.006535080261528492] [1.1120982878077418e-13:0.045002631843090057] [9.5580075971934964e-13:0.057302199304103851] [1.4565822506473758e-13:0.0011827306589111686] [4.2384973874024737e-15:0.0062593608163297176] [5.8626445711973396e-12:0.034428361803293228] [1.9944805626937595e-13:0.007234474178403616] [1.0446845211814493e-12:0.0054156309925019741] [4.4233768124041228e-14:0.028588121756911278] [4.0549291355218564e-12:0.078850343823432922] [1.5781794545245004e-13:0.010614180006086826] [5.8887621070657231e-14:0.0095330281183123589] [1.843559078182691e-13:0.22016318142414093] [9.3098556641635355e-11:0.65930312871932983] [1.8969162246290812e-14:0.18369469046592712] [9.3344914588698591e-14:0.031525131314992905] [1.1397755806383855e-15:0.0010143920080736279] [3.7641954440600922e-14:0.062509059906005859] [7.8869656844945263e-14:0.0024758977815508842] [1.680487109331167e-15:0.00089296774240210652] [1.1622429601577163e-14:0.0052137882448732853] [4.1837956710200075e-12:0.030392533168196678] [2.5255901767184431e-14:0.058972828090190887] [8.2444300206750178e-15:0.0013482387876138091] [3.8632579123579203e-13:0.023682840168476105] [1.3784158479890861e-14:0.0008627162897028029] [2.385201898425155e-16:0.001038058428093791] [4.6540359456906377e-13:0.99301564693450928] [5.019743301581947e-12:0.1302545964717865] [6.8346939436150778e-14:0.031051075085997581] [2.0920046836341022e-13:0.14956910908222198] [8.1910491573061045e-14:0.59399807453155518] [7.4087269522418731e-13:0.076756604015827179] [1.6286793555518944e-14:0.0038381656631827354] [8.812822840193954e-14:0.0029796627350151539] [8.1223734200086203e-15:0.00074929883703589439] [3.1819517723810642e-14:0.0064786355942487717] [1.0377568487700273e-13:0.066363967955112457] [9.4621034098241186e-14:0.00044472291483543813] [2.446801206090754e-09:0.9906432032585144] [4.2821416551541702e-11:0.099440574645996094] [1.3313654378174083e-13:0.0099625037983059883] [2.2128900071410364e-14:0.00574105279520154] [7.5745235211528532e-15:0.011822482571005821] [1.3697606959274522e-13:0.0048409202136099339] [9.4506218782240865e-16:0.0063822879455983639] [9.8651371360086726e-13:0.16197758913040161] [2.2031963926860687e-13:0.028322711586952209] [1.1680734504637691e-12:0.0066597373224794865] [3.5381428062835956e-15:0.012661173939704895] [6.8965314145227885e-13:0.0053020482882857323] [5.775834996911422e-13:0.006478204857558012] [8.8424730591060013e-14:0.0052825747989118099] [2.452963234009925e-13:0.02062622644007206] [3.2136207757382795e-13:0.2037094384431839] [1.4336711952702731e-14:0.0065479534678161144] [2.990199437342099e-14:0.0011379162315279245] [1.8925982200705682e-13:0.037863720208406448] [2.7839327522947988e-13:0.26082620024681091] [2.9915325401461352e-15:0.005434257909655571] [2.203253990926482e-14:0.00065177958458662033] [9.2598712443485443e-14:0.27765333652496338] [8.074373960241521e-13:0.0065043158829212189] [3.9364019856213961e-14:0.0061896475963294506] [1.4517873665395586e-12:0.010423148050904274] [3.534279870175995e-14:0.0004121348902117461] [9.6881346261373791e-13:0.050728976726531982] [4.0653439477094343e-15:0.0037771316710859537] [1.5277724560707612e-13:0.0044825943186879158] [4.9804013994500518e-13:0.20326782763004303] [4.8424198678675978e-13:0.035227153450250626] [9.7883052845807589e-14:0.0089488085359334946] [3.2869006453238592e-13:0.06363118439912796] [4.7140996618441622e-13:0.016160208731889725] [1.8601911677684768e-10:0.5380052924156189] [1.611487093940156e-13:0.021019218489527702] [7.6874440146923462e-10:0.26791086792945862] [1.5854899615419527e-09:0.89540517330169678] [1.6899220399240432e-14:0.0013189715100452304] [4.7834406926997378e-14:0.0040743979625403881] [2.5352747245327434e-12:0.11450771987438202] [1.6382932218548781e-15:0.011233814060688019] [3.7543739276300891e-13:0.011993292719125748] [2.236628444301017e-13:0.0051093404181301594] [1.1761486229389106e-09:0.99928408861160278] [3.4574099361467728e-14:0.0021540431771427393] [5.3390083322544125e-15:0.01063072681427002] [5.4390103125566761e-14:0.060186237096786499] [1.8172659896537914e-14:0.0029663830064237118] [2.941842326383351e-14:0.0087306452915072441] [7.4435954362100931e-14:0.023250112310051918] [9.7811380305942719e-14:0.0020242424216121435] [8.9967632952922538e-13:0.73812973499298096] [1.3985222078712403e-14:0.0016661981353536248] [1.4307480845692985e-14:0.0074640372768044472] [1.5734179096334872e-14:0.0053832619450986385] [1.1220570235752e-13:0.20120441913604736] [6.9139627596542189e-15:0.0062585398554801941] [7.7518053824901512e-13:0.019675726071000099] [1.562058587947085e-13:0.01174381747841835] [2.0208979617779982e-13:0.016832908615469933] [5.9661260307097841e-14:0.024470830336213112] [1.2482545650328164e-13:0.027585353702306747] [3.9299655516618001e-14:0.084935471415519714] [4.2413322203296855e-13:0.028548695147037506] [1.2994732243379326e-13:0.020691396668553352] [1.7249033147995196e-14:0.0082375574856996536] [3.8708304546690095e-14:0.040467575192451477] [1.5778693727031695e-13:0.43827784061431885] [4.2288983865277144e-14:0.026996051892638206] [2.7740101340122114e-13:0.017923152074217796] [8.3669812885826117e-15:0.0032017421908676624] [8.5763508924849297e-15:0.070145726203918457] [1.548100433653235e-13:0.012885523959994316] [1.837376245887503e-14:0.027116678655147552] [2.3248098257144627e-15:0.045298893004655838] [5.5460659936085177e-13:0.0013658805983141065] [1.2157809481383453e-13:0.0056787356734275818] [2.2578366585222776e-13:0.053824685513973236] [5.1552512259078753e-14:0.0035245167091488838] [2.6543994934469413e-14:0.0004046507237944752] [2.4602056706408103e-14:0.00039557396667078137] [9.0275916015086603e-15:0.013963298872113228] [6.4285043759569616e-14:0.020151812583208084] [1.6684912169739148e-15:0.0026786900125443935] [9.0302179796275528e-13:0.060613233596086502] [1.8498720350673681e-12:0.16839641332626343] [5.8077278880172556e-13:0.051115192472934723] [2.1634187090434701e-14:0.0010364284971728921] [2.9232584235205916e-12:0.43273335695266724] [6.0834032256096293e-10:0.1511961966753006] [3.5982265886476406e-13:0.0084076505154371262] [1.8581378704576532e-14:0.00033113171230070293] [1.8262724909819464e-14:0.00017721604672260582] [6.5763930251190681e-15:0.00031976567697711289] [4.644861867364198e-15:0.00016773604147601873] [6.4884553350845475e-15:0.00045675906585529447] [2.405378117349634e-15:9.7421914688311517e-05] [9.1887692658769449e-15:0.00096676434623077512] [6.8895999745088171e-14:0.0024034930393099785] [1.2732085961160607e-14:7.7333861554507166e-05] [3.4911789713494568e-13:0.00020550948102027178] [3.3182256855418535e-13:0.0014257670845836401] [2.6380651406854999e-14:0.0030648061074316502] [9.9208157964755794e-14:0.00082391389878466725] [6.4978180137670229e-15:5.9019341279054061e-05] [5.6428423538630243e-14:0.00048095104284584522] [2.3861768545232684e-14:0.00041872574365697801] [3.7235354908996335e-14:0.00024901240249164402] [1.0397876949643642e-13:0.00016821545432321727] [1.1706847785012547e-13:0.00018929004727397114] [3.1333326233097536e-13:0.00022703889408148825] [3.4482098030868755e-14:0.00033416779479011893] [1.046352505237446e-14:0.00011551861825864762] [2.9734159877120234e-14:0.00065196206560358405] [5.3667512870791273e-14:0.00023929265444166958] [3.7355504838498463e-14:0.00010250308696413413] [5.3083838560464332e-15:0.00060920696705579758] [2.218146863018286e-14:0.0021563901100307703] [1.5821389608584174e-14:0.0006656776531599462] [9.1722738074489357e-14:0.0009260832448489964] [2.5978722753734751e-13:0.00024161490728147328] [1.4080443828576837e-14:0.00033863334101624787] [1.731150216666838e-13:0.00062700948910787702] [1.5686771001090227e-13:0.002050104783847928] [2.5139774820665288e-15:0.00050296826520934701] [5.1244293910231858e-14:0.0002266657684231177] [4.0954727402366803e-14:0.00038492196472361684] [1.6445219209841599e-13:0.012174436822533607] [3.1645571037762499e-14:5.5177431931952015e-05] [1.3518639908948003e-14:0.00082006078446283937] [5.1061937881083375e-14:0.00031364965252578259] [1.073779516772835e-14:0.00012216815957799554] [9.0750330698514264e-15:4.1563849663361907e-05] [3.9869075109475599e-14:3.1113664590520784e-05] [5.0027749954814626e-13:0.0001116394269047305] [1.5994649181505505e-13:0.0009339576936326921] [4.5184474515907666e-14:0.00073256844189018011] [2.4544420857731952e-13:0.001285899430513382] [1.3532156860720287e-14:0.0010065361857414246] [3.7749012628870288e-14:0.31915423274040222] [6.9877981981499027e-14:0.0046097231097519398] [1.0177916045768856e-13:0.019224187359213829] [3.4653174545775127e-15:0.00080010463716462255] [3.7077579775977171e-15:0.026394950225949287] [2.8942617752306457e-14:0.041812524199485779] [3.0431549631165485e-15:0.011699230410158634] [2.2453138523795269e-13:0.057788573205471039] [4.5525947378263765e-13:0.071869060397148132] [6.0476970822995624e-15:0.01349259540438652] [4.5968630513421385e-15:0.012519456446170807] [6.3260635336896687e-14:0.0024616888258606195] [3.5726020124020319e-13:0.045202899724245071] [7.4190717995080077e-15:0.017145507037639618] [2.7010915748006126e-13:0.0054903486743569374] [1.3066452217089242e-14:5.8301600802224129e-05] [4.9921300232662921e-16:0.00018927488417830318] [6.4200984209884099e-14:0.00035555061185732484] [2.3272243778339058e-14:0.0001065520555130206] [1.0033497436481766e-14:0.00025094847660511732] [4.119673911495746e-15:9.9166922154836357e-05] [2.8505546528061752e-16:0.00035724652116186917] [2.8148124564704446e-15:0.00012304159463383257] [5.5938852047644413e-15:9.2818707344122231e-05] [4.4280176212188344e-15:0.00029050451121293008] [1.3221963231040395e-14:0.0010926943505182862] [1.2374184047759564e-14:0.0016698121326044202] [6.0264604840042394e-16:0.00011193325190106407] [8.229948298375811e-14:0.00064468604978173971] [9.2279360693579837e-15:0.0071568181738257408]
tree_sizes=539 545 545 546 545 547 547 549 545 550 552 552 550 549 551 547 555 446 550 552 444 552 443 445 338 444 445 338 335 339 337 338 339 336 339 339 340 338 337 340 338 338 340

Tree=0
num_leaves=4
num_cat=0
split_feature=479 874 874
split_gain=1244.33 19.3702 14.2298
threshold=0.001523939776234329 0.015435023233294489 0.0018965158378705385
decision_type=2 2 2
left_child=1 -1 -2
right_child=2 -3 -4
leaf_value=-0.10434137530492459 0.19618547268205111 -0.19676862217130892 0.11440872574362144
leaf_weight=30.999985218048096 152.74992716312408 156.49992537498474 30.999985218048096
leaf_count=124 611 626 124
internal_value=0 -1.80768 1.84437
internal_weight=0 187.5 183.75
internal_count=1485 750 735
shrinkage=1


Tree=1
num_leaves=4
num_cat=0
split_feature=479 874 511
split_gain=1021.63 20.3618 11.6121
threshold=0.0010021695052273574 0.0022071696585044269 4.9375885282643146e-05
decision_type=2 2 2
left_child=2 -2 -1
right_child=1 -3 -4
leaf_value=-0.17925052278116993 0.1800639807626947 0.08588837725026216 -0.10593603209441578
leaf_weight=151.15756618976593 154.77884146571159 30.396195605397224 31.766425743699074
leaf_count=610 625 122 128
internal_value=0 1.6515 -1.67164
internal_weight=0 185.175 182.924
internal_count=1485 747 738
shrinkage=0.1


Tree=2
num_leaves=4
num_cat=0
split_feature=479 817 874
split_gain=849.662 15.8749 12.4257
threshold=0.0011958691757172348 0.015982408076524738 0.01741413772106171
decision_type=2 2 2
left_child=2 -2 -1
right_child=1 -3 -4
leaf_value=-0.089003885693548335 0.085822921227037358 0.16776980347377535 -0.16495855527799463
leaf_weight=30.014408111572266 32.433941125869751 147.19832055270672 150.38476674258709
leaf_count=122 133 608 622
internal_value=0 1.53531 -1.52882
internal_weight=0 179.632 180.399
internal_count=1485 741 744
shrinkage=0.1


Tree=3
num_leaves=4
num_cat=0
split_feature=479 705 511
split_gain=715.256 18.0533 10.6045
threshold=0.0010021695052273574 0.023312805220484737 4.9375885282643146e-05
decision_type=2 2 2
left_child=2 -2 -1
right_child=1 -3 -4
leaf_value=-0.15562949148890665 0.15662613201334769 0.067883668959564825 -0.08547474507426249
leaf_weight=142.51406951248646 145.42454217374325 30.015342548489571 30.642016440629959
leaf_count=610 621 126 128
internal_value=0 1.41914 -1.43777
internal_weight=0 175.44 173.156
internal_count=1485 747 738
shrinkage=0.1


Tree=4
num_leaves=4
num_cat=0
split_feature=479 874 817
split_gain=608.589 13.3901 11.9174
threshold=0.001523939776234329 0.018721496686339382 0.018232595175504688
decision_type=2 2 2
left_child=1 -1 -2
right_child=2 -3 -4
leaf_value=-0.069672903508090925 0.075501849220479422 -0.14645050079064137 0.14889868127034336
leaf_weight=30.755712285637856 30.707618787884712 138.51137988269329 134.98326650261879
leaf_count=130 132 620 603
internal_value=0 -1.32991 1.35831
internal_weight=0 169.267 165.691
internal_count=1485 750 735
shrinkage=0.1


Tree=5
num_leaves=4
num_cat=0
split_feature=817 874 595
split_gain=523.984 33.5477 5.95464
threshold=0.0029541756957769398 0.01053807605057955 8.5412273620022474e-05
decision_type=2 2 2
left_child=1 -1 -2
right_child=2 -3 -4
leaf_value=-0.024414612056095162 0.14560164942389361 -0.14176934353102363 0.090719576563630444
leaf_weight=30.197980478405952 119.08884871006012 138.27893549203873 32.305081814527512
leaf_count=131 558 649 147
internal_value=0 -1.21003 1.34563
internal_weight=0 168.477 151.394
internal_count=1485 780 705
shrinkage=0.1


Tree=6
num_leaves=4
num_cat=0
split_feature=479 817 581
split_gain=451.205 13.541 10.6593
threshold=0.001523939776234329 0.00013846296496922153 0.0024592370027676229
decision_type=2 2 2
left_child=1 -1 -2
right_child=2 -3 -4
leaf_value=-0.13470209864587318 0.066814623466187717 -0.056955837274037829 0.13652792913822703
leaf_weight=123.85137960314751 30.886086210608482 30.153879582881927 119.61558251082897
leaf_count=613 146 137 589
internal_value=0 -1.19945 1.22757
internal_weight=0 154.005 150.502
internal_count=1485 750 735
shrinkage=0.1


Tree=7
num_leaves=4
num_cat=0
split_feature=817 670 595
split_gain=393.035 29.2358 6.08841
threshold=0.0029541756957769398 7.8428634878946482e-05 8.2588339864742024e-05
decision_type=2 2 2
left_child=1 -1 -2
right_child=2 -3 -4
leaf_value=-0.13179667984094157 0.13515498446235705 -0.021981007278427809 0.07891931989320311
leaf_weight=121.65732815861702 105.42808185517788 30.906191051006317 30.544317245483398
leaf_count=635 555 145 150
internal_value=0 -1.09838 1.23191
internal_weight=0 152.564 135.972
internal_count=1485 780 705
shrinkage=0.1


Tree=8
num_leaves=4
num_cat=0
split_feature=479 874 565
split_gain=343.107 24.6975 3.88049
threshold=0.002606134745292366 0.013664786703884603 5.548494846152608e-05
decision_type=2 2 2
left_child=1 -1 -2
right_child=2 -3 -4
leaf_value=-0.024136937716141844 0.1289889174237554 -0.12655243907377045 0.081296984513716017
leaf_weight=30.434699863195419 98.359433710575104 114.10379335284233 30.007414162158966
leaf_count=141 549 639 156
internal_value=0 -1.05301 1.18555
internal_weight=0 144.538 128.367
internal_count=1485 780 705
shrinkage=0.1


Tree=9
num_leaves=4
num_cat=0
split_feature=874 817 643
split_gain=302.168 33.7707 4.06511
threshold=0.0067993996199220428 0.0055564225185662517 1.4776127841287236e-06
decision_type=2 2 2
left_child=1 -1 -2
right_child=2 -3 -4
leaf_value=0.0064747750193237591 -0.12780437034876843 0.12628845638145986 -0.079043632404082659
leaf_weight=30.254523709416389 88.890715688467026 108.01392407715321 30.181245163083076
leaf_count=143 539 643 160
internal_value=0 1.00307 -1.16206
internal_weight=0 138.268 119.072
internal_count=1485 786 699
shrinkage=0.1


Tree=10
num_leaves=4
num_cat=0
split_feature=479 874 581
split_gain=266.661 29.2472 2.12512
threshold=0.00048320961650460964 0.0022071696585044269 2.2735922357242092e-05
decision_type=2 2 2
left_child=2 -2 -1
right_child=1 -3 -4
leaf_value=-0.12302869368145514 0.12230324068262784 0.0098409529485984776 -0.084274865974377458
leaf_weight=80.167499095201492 100.65584771335125 30.30594789981842 31.549154818058014
leaf_count=518 636 153 178
internal_value=0 0.965501 -1.12929
internal_weight=0 130.962 111.717
internal_count=1485 789 696
shrinkage=0.1


Tree=11
num_leaves=4
num_cat=0
split_feature=817 670 595
split_gain=235.433 21.0856 4.56421
threshold=0.0029541756957769398 7.1422677137888982e-05 6.0401498558348983e-05
decision_type=2 2 2
left_child=1 -1 -2
right_child=2 -3 -4
leaf_value=-0.11800651391612015 0.12207544952816184 -0.020655653227825713 0.070766811918491365
leaf_weight=91.987238630652428 76.184610530734062 30.066842004656792 30.038067147135735
leaf_count=624 530 156 175
internal_value=0 -0.943878 1.08362
internal_weight=0 122.054 106.223
internal_count=1485 780 705
shrinkage=0.1


Tree=12
num_leaves=4
num_cat=0
split_feature=874 581 466
split_gain=213.645 27.2222 1.81553
threshold=0.01053807605057955 0.0012929005315527322 0.00013050001871306452
decision_type=2 2 2
left_child=1 -1 -2
right_child=2 -3 -4
leaf_value=0.0090691016848784278 -0.12070414373712451 0.11850020381636293 -0.082750092342601958
leaf_weight=31.044152438640594 65.883193209767342 86.950478956103325 30.793734669685364
leaf_count=169 493 629 194
internal_value=0 0.900273 -1.09586
internal_weight=0 117.995 96.6769
internal_count=1485 798 687
shrinkage=0.1


Tree=13
num_leaves=4
num_cat=0
split_feature=874 581 466
split_gain=186.214 22.0405 3.59138
threshold=0.0067993996199220428 0.0013788139331154527 0.00013050001871306452
decision_type=2 2 2
left_child=1 -1 -2
right_child=2 -3 -4
leaf_value=0.014424083282602477 -0.11849790230448738 0.11565592957078585 -0.071231735255989345
leaf_weight=30.004396826028824 61.61649576574564 79.165133640170097 31.212896972894669
leaf_count=164 498 622 201
internal_value=0 0.882166 -1.03534
internal_weight=0 109.17 92.8294
internal_count=1485 786 699
shrinkage=0.1


Tree=14
num_leaves=4
num_cat=0
split_feature=817 670 657
split_gain=166.641 24.59 1.14201
threshold=0.0050716882105916747 7.5658801506506293e-05 2.1045858375146057e-05
decision_type=2 2 2
left_child=1 -1 -2
right_child=2 -3 -4
leaf_value=-0.11213995696841061 0.11702319708280882 -0.0058799300248778873 0.082532320897104383
leaf_weight=76.519868522882462 52.979765743017197 30.618298716843128 30.060841761529446
leaf_count=634 458 170 223
internal_value=0 -0.821078 1.05668
internal_weight=0 107.138 83.0406
internal_count=1485 804 681
shrinkage=0.1


Tree=15
num_leaves=4
num_cat=0
split_feature=874 581 466
split_gain=148.835 21.5652 1.90927
threshold=0.01053807605057955 0.0013788139331154527 9.7622345492709442e-05
decision_type=2 2 2
left_child=1 -1 -2
right_child=2 -3 -4
leaf_value=0.010390139056221012 -0.11501501480741877 0.11215841799595455 -0.075472720905863488
leaf_weight=30.173583447933197 49.310337208211422 68.857429563999176 30.324278131127357
leaf_count=172 470 626 217
internal_value=0 0.815647 -1.0108
internal_weight=0 99.031 79.6346
internal_count=1485 798 687
shrinkage=0.1


Tree=16
num_leaves=4
num_cat=0
split_feature=581 565 779
split_gain=133.991 24.6706 0.689722
threshold=0.00014975535304984081 6.2173035985324545e-05 0.00045214315468911087
decision_type=2 2 2
left_child=2 -2 -1
right_child=1 -3 -4
leaf_value=-0.082408242769008377 0.11237673427497991 0.0044115630521223519 -0.11407183853530939
leaf_weight=30.403189040720463 64.307533822953701 31.625362493097782 41.872456334531307
leaf_count=273 598 215 399
internal_value=0 0.771975 -1.02059
internal_weight=0 95.9329 72.2756
internal_count=1485 813 672
shrinkage=0.1


Tree=17
num_leaves=3
num_cat=0
split_feature=817 874
split_gain=120.979 24.9183
threshold=0.0073600385803729304 0.015435023233294489
decision_type=2 2
left_child=1 -1
right_child=-2 -3
leaf_value=-8.5800256266724446e-05 0.10462468990993948 -0.10861769799523423
leaf_weight=32.023045487701893 64.478496596217155 62.081630751490593
leaf_count=186 657 642
internal_value=0 -0.720744
internal_weight=0 94.1047
internal_count=1485 828
shrinkage=0.1


Tree=18
num_leaves=4
num_cat=0
split_feature=874 817 557
split_gain=107.177 9.74529 6.46748
threshold=0.0040170184802263984 0.021902063861489299 7.8640860010636987e-06
decision_type=2 2 2
left_child=1 -1 -2
right_child=2 -3 -4
leaf_value=0.03481597303826027 -0.11355533331026711 0.10928262050279131 -0.049775112811774463
leaf_weight=30.137871354818344 41.278990067541599 47.253944739699364 30.359067171812057
leaf_count=192 491 564 238
internal_value=0 0.810979 -0.875836
internal_weight=0 77.3918 71.6381
internal_count=1485 756 729
shrinkage=0.1


Tree=19
num_leaves=4
num_cat=0
split_feature=479 866 511
split_gain=96.9245 15.5083 1.28696
threshold=0.00048320961650460964 5.675062857335434e-05 5.2707373470184402e-06
decision_type=2 2 2
left_child=2 -2 -1
right_child=1 -3 -4
leaf_value=-0.10883938332683003 0.10950158641817109 0.018215531769660894 -0.071696445090207464
leaf_weight=32.10246354341507 47.022861316800117 31.470898479223251 30.411868311464787
leaf_count=401 540 249 295
internal_value=0 0.735914 -0.921835
internal_weight=0 78.4938 62.5143
internal_count=1485 789 696
shrinkage=0.1


Tree=20
num_leaves=3
num_cat=0
split_feature=817 670
split_gain=88.0091 23.5718
threshold=0.010580112691968681 7.8428634878946482e-05
decision_type=2 2
left_child=1 -1
right_child=-2 -3
leaf_value=-0.10360754340422756 0.10363378674846019 0.0060010994690826288
leaf_weight=51.98751062899828 50.010769791901112 31.200654603540897
leaf_count=643 639 203
internal_value=0 -0.629146
internal_weight=0 83.1882
internal_count=1485 846
shrinkage=0.1


Tree=21
num_leaves=4
num_cat=0
split_feature=874 468 695
split_gain=80.2151 8.29308 4.23238
threshold=0.0040170184802263984 0.0023798672482371335 2.3105008040147372e-06
decision_type=2 2 2
left_child=1 -1 -2
right_child=2 -3 -4
leaf_value=0.036162570023899297 -0.10938853365455575 0.10947749126152165 -0.052726061375761572
leaf_weight=30.254391450434923 30.272283840924501 34.796315133571625 30.044366739690304
leaf_count=300 468 456 261
internal_value=0 0.764432 -0.824846
internal_weight=0 65.0507 60.3167
internal_count=1485 756 729
shrinkage=0.1


Tree=22
num_leaves=3
num_cat=0
split_feature=817 705
split_gain=71.7413 21.0835
threshold=0.010580112691968681 0.012656571343541147
decision_type=2 2
left_child=1 -1
right_child=-2 -3
leaf_value=0.0030368368197028592 0.10098738381831032 -0.10338228981966813
leaf_weight=32.152622532099485 43.508621674031019 43.538615021854639
leaf_count=299 639 547
internal_value=0 -0.587267
internal_weight=0 75.6912
internal_count=1485 846
shrinkage=0.1


Tree=23
num_leaves=3
num_cat=0
split_feature=581 565
split_gain=65.2886 16.3816
threshold=0.00014975535304984081 3.715521052072291e-05
decision_type=2 2
left_child=-1 -2
right_child=1 -3
leaf_value=-0.090253396472907754 0.10999168833822542 0.010913959981435491
leaf_weight=46.323397122323513 34.480603002011776 32.335047125816345
leaf_count=672 518 295
internal_value=0 0.629116
internal_weight=0 66.8157
internal_count=1485 813
shrinkage=0.1


Tree=24
num_leaves=2
num_cat=0
split_feature=874
split_gain=59.546
threshold=0.0030467801261693244
decision_type=2
left_child=-1
right_child=-2
leaf_value=0.074554706852288904 -0.073143781594697574
leaf_weight=53.161875601857901 54.215994756668806
leaf_count=732 753
internal_value=0
internal_weight=0
internal_count=1485
shrinkage=0.1


Tree=25
num_leaves=3
num_cat=0
split_feature=581 874
split_gain=56.1879 15.1976
threshold=0.001643977942876518 0.035491423681378372
decision_type=2 2
left_child=1 -1
right_child=-2 -3
leaf_value=-0.007211614808386696 0.093299357701145225 -0.10420861774759482
leaf_weight=31.789575606584549 39.089238703250885 32.628052033483982
leaf_count=248 639 598
internal_value=0 -0.571833
internal_weight=0 64.4176
internal_count=1485 846
shrinkage=0.1


Tree=26
num_leaves=3
num_cat=0
split_feature=817 670
split_gain=50.7066 18.0141
threshold=0.015982408076524738 7.5658801506506293e-05
decision_type=2 2
left_child=1 -1
right_child=-2 -3
leaf_value=-0.097004590761623863 0.10138451587404043 0.007323113638213358
leaf_weight=35.941859386861324 32.070289328694344 30.047917176038027
leaf_count=639 615 231
internal_value=0 -0.500996
internal_weight=0 65.9898
internal_count=1485 870
shrinkage=0.1


Tree=27
num_leaves=2
num_cat=0
split_feature=581
split_gain=44.2742
threshold=0.001643977942876518
decision_type=2
left_child=-1
right_child=-2
leaf_value=-0.052467469282946183 0.089179561740527324
leaf_weight=58.723856262862682 34.122874811291695
leaf_count=846 639
internal_value=0
internal_weight=0
internal_count=1485
shrinkage=0.1


Tree=28
num_leaves=2
num_cat=0
split_feature=874
split_gain=42.1973
threshold=0.0030467801261693244
decision_type=2
left_child=-1
right_child=-2
leaf_value=0.0686914405614477 -0.06761669361850714
leaf_weight=44.24051721394062 44.823613308370113
leaf_count=732 753
internal_value=0
internal_weight=0
internal_count=1485
shrinkage=0.1


Tree=29
num_leaves=2
num_cat=0
split_feature=817
split_gain=38.6972
threshold=0.0003021617303602398
decision_type=2
left_child=-1
right_child=-2
leaf_value=-0.080490268442456867 0.054626003689804442
leaf_weight=34.632909342646599 51.653644852340221
leaf_count=672 813
internal_value=0
internal_weight=0
internal_count=1485
shrinkage=0.1


Tree=30
num_leaves=2
num_cat=0
split_feature=817
split_gain=34.7213
threshold=0.0058065287303179511
decision_type=2
left_child=-1
right_child=-2
leaf_value=-0.049590135021977393 0.08257899294077517
leaf_weight=52.125105187296867 30.90486322902143
leaf_count=816 669
internal_value=0
internal_weight=0
internal_count=1485
shrinkage=0.1


Tree=31
num_leaves=2
num_cat=0
split_feature=874
split_gain=33.6509
threshold=0.0030467801261693244
decision_type=2
left_child=-1
right_child=-2
leaf_value=0.064638352575728086 -0.06378783881413605
leaf_weight=39.722792303189635 40.132898293435574
leaf_count=732 753
internal_value=0
internal_weight=0
internal_count=1485
shrinkage=0.1


Tree=32
num_leaves=2
num_cat=0
split_feature=581
split_gain=31.3917
threshold=0.00014975535304984081
decision_type=2
left_child=-1
right_child=-2
leaf_value=-0.07838229370409816 0.050483093333686661
leaf_weight=30.140283165499568 47.497724989429116
leaf_count=672 813
internal_value=0
internal_weight=0
internal_count=1485
shrinkage=0.1


Tree=33
num_leaves=2
num_cat=0
split_feature=874
split_gain=27.7001
threshold=0.01053807605057955
decision_type=2
left_child=-1
right_child=-2
leaf_value=0.05033654886459709 -0.071877484039134673
leaf_weight=44.186457667499781 30.648700831457973
leaf_count=798 687
internal_value=0
internal_weight=0
internal_count=1485
shrinkage=0.1


Tree=34
num_leaves=2
num_cat=0
split_feature=479
split_gain=25.5304
threshold=0.00048320961650460964
decision_type=2
left_child=-1
right_child=-2
leaf_value=-0.069609898098616854 0.049268682537088139
leaf_weight=30.00225024856627 42.701668133959174
leaf_count=696 789
internal_value=0
internal_weight=0
internal_count=1485
shrinkage=0.1


Tree=35
num_leaves=2
num_cat=0
split_feature=874
split_gain=24.1025
threshold=0.0016630475292913618
decision_type=2
left_child=-1
right_child=-2
leaf_value=0.064577092216448792 -0.051990567123610276
leaf_weight=31.087740188464522 39.034332120791078
leaf_count=678 807
internal_value=0
internal_weight=0
internal_count=1485
shrinkage=0.1


Tree=36
num_leaves=2
num_cat=0
split_feature=581
split_gain=22.4771
threshold=0.00063079429673962306
decision_type=2
left_child=-1
right_child=-2
leaf_value=-0.052121408719474453 0.061393982458006681
leaf_weight=37.223631924018264 31.349259963259101
leaf_count=768 717
internal_value=0
internal_weight=0
internal_count=1485
shrinkage=0.1


Tree=37
num_leaves=2
num_cat=0
split_feature=874
split_gain=20.1544
threshold=0.0030467801261693244
decision_type=2
left_child=-1
right_child=-2
leaf_value=0.054249248471725291 -0.05463605407989796
leaf_weight=33.254543157294393 33.080679804086685
leaf_count=732 753
internal_value=0
internal_weight=0
internal_count=1485
shrinkage=0.1


Tree=38
num_leaves=2
num_cat=0
split_feature=468
split_gain=19.244
threshold=0.0008629736548755319
decision_type=2
left_child=-1
right_child=-2
leaf_value=-0.056527469921795498 0.051092143026369607
leaf_weight=30.82768134213984 34.143731767311692
leaf_count=798 687
internal_value=0
internal_weight=0
internal_count=1485
shrinkage=0.1


Tree=39
num_leaves=2
num_cat=0
split_feature=779
split_gain=18.5811
threshold=0.00040064471249934291
decision_type=2
left_child=-1
right_child=-2
leaf_value=0.052091620523274144 -0.054752593481011906
leaf_weight=32.522826619446278 30.971703698858619
leaf_count=853 632
internal_value=0
internal_weight=0
internal_count=1485
shrinkage=0.1


Tree=40
num_leaves=2
num_cat=0
split_feature=468
split_gain=16.268
threshold=0.0010074194869957866
decision_type=2
left_child=-1
right_child=-2
leaf_value=-0.050689724000320305 0.049896253756084918
leaf_weight=31.144715028814971 31.569355404004455
leaf_count=816 669
internal_value=0
internal_weight=0
internal_count=1485
shrinkage=0.1


Tree=41
num_leaves=2
num_cat=0
split_feature=874
split_gain=16.2643
threshold=0.0030467801261693244
decision_type=2
left_child=-1
right_child=-2
leaf_value=0.05070704894024855 -0.050916972568492869
leaf_weight=30.715886124409735 30.665800949558616
leaf_count=732 753
internal_value=0
internal_weight=0
internal_count=1485
shrinkage=0.1


Tree=42
num_leaves=2
num_cat=0
split_feature=779
split_gain=14.2034
threshold=0.00037974934093654161
decision_type=2
left_child=-1
right_child=-2
leaf_value=0.047859610177596407 -0.047986573005896635
leaf_weight=30.141512522473931 30.138427367433906
leaf_count=841 644
internal_value=0
internal_weight=0
internal_count=1485
shrinkage=0.1


end of trees

feature importances:
Column_874=23
Column_817=15
Column_581=11
Column_479=10
Column_670=5
Column_466=3
Column_468=3
Column_511=3
Column_565=3
Column_595=3
Column_779=3
Column_705=2
Column_557=1
Column_643=1
Column_657=1
Column_695=1
Column_866=1

parameters:
[boosting: gbdt]
[objective: binary]
[metric: binary_logloss]
[tree_learner: serial]
[device_type: cpu]
[data: ]
[valid: ]
[num_iterations: 100]
[learning_rate: 0.1]
[num_leaves: 256]
[num_threads: 0]
[max_depth: -1]
[min_data_in_leaf: 20]
[min_sum_hessian_in_leaf: 30]
[bagging_fraction: 1]
[pos_bagging_fraction: 1]
[neg_bagging_fraction: 1]
[bagging_freq: 0]
[bagging_seed: 3]
[feature_fraction: 1]
[feature_fraction_bynode: 1]
[feature_fraction_seed: 2]
[early_stopping_round: 0]
[first_metric_only: 0]
[max_delta_step: 0]
[lambda_l1: 0]
[lambda_l2: 1]
[min_gain_to_split: 0.1]
[drop_rate: 0.1]
[max_drop: 50]
[skip_drop: 0.5]
[xgboost_dart_mode: 0]
[uniform_drop: 0]
[drop_seed: 4]
[top_rate: 0.2]
[other_rate: 0.1]
[min_data_per_group: 100]
[max_cat_threshold: 32]
[cat_l2: 10]
[cat_smooth: 10]
[max_cat_to_onehot: 4]
[top_k: 20]
[monotone_constraints: ]
[feature_contri: ]
[forcedsplits_filename: ]
[forcedbins_filename: ]
[refit_decay_rate: 0.9]
[cegb_tradeoff: 1]
[cegb_penalty_split: 0]
[cegb_penalty_feature_lazy: ]
[cegb_penalty_feature_coupled: ]
[verbosity: -1]
[max_bin: 255]
[max_bin_by_feature: ]
[min_data_in_bin: 3]
[bin_construct_sample_cnt: 200000]
[histogram_pool_size: -1]
[data_random_seed: 1]
[output_model: LightGBM_model.txt]
[snapshot_freq: -1]
[input_model: ]
[output_result: LightGBM_predict_result.txt]
[initscore_filename: ]
[valid_data_initscores: ]
[pre_partition: 0]
[enable_bundle: 1]
[max_conflict_rate: 0]
[is_enable_sparse: 1]
[sparse_threshold: 0.8]
[use_missing: 1]
[zero_as_missing: 0]
[two_round: 0]
[save_binary: 0]
[header: 0]
[label_column: ]
[weight_column: ]
[group_column: ]
[ignore_column: ]
[categorical_feature: ]
[predict_raw_score: 0]
[predict_leaf_index: 0]
[predict_contrib: 0]
[num_iteration_predict: -1]
[pred_early_stop: 0]
[pred_early_stop_freq: 10]
[pred_early_stop_margin: 10]
[convert_model_language: ]
[convert_model: gbdt_prediction.cpp]
[num_class: 1]
[is_unbalance: 0]
[scale_pos_weight: 1]
[sigmoid: 1]
[boost_from_average: 1]
[reg_sqrt: 0]
[alpha: 0.9]
[fair_c: 1]
[poisson_max_delta_step: 0.7]
[tweedie_variance_power: 1.5]
[max_position: 20]
[lambdamart_norm: 1]
[label_gain: ]
[metric_freq: 1]
[is_provide_training_metric: 0]
[eval_at: ]
[multi_error_top_k: 1]
[num_machines: 1]
[local_listen_port: 12400]
[time_out: 120]
[machine_list_filename: ]
[machines: ]
[gpu_platform_id: -1]
[gpu_device_id: -1]
[gpu_use_dp: 0]

end of parameters

pandas_categorical:null
